{"size": 13, "layers": [{"weights": [[-1.2063727378845215, -0.03525784611701965, -2.148068428039551, -0.3871231973171234, -1.186694622039795, 1.8813765048980713, -0.31086745858192444, -0.9110814929008484, -1.4402247667312622, 0.11020143330097198, -0.955128014087677, 1.5133304595947266, -0.44940394163131714, -1.1680392026901245, 0.6630387902259827, 1.3414260149002075, -1.1430470943450928, -0.23488087952136993, -0.9939555525779724, -0.6022446751594543, 0.33780330419540405, -0.2568577527999878, -0.1255894899368286, -1.2908669710159302, 0.7577906847000122, -1.3174809217453003], [2.2353549003601074, -0.906559407711029, -1.0587643384933472, 1.150649070739746, 2.249687433242798, -4.208915710449219, -0.011816000565886497, -0.7360246777534485, -0.36590343713760376, -0.2636823356151581, -0.7014965415000916, 0.3313123285770416, 0.38743269443511963, 2.1569056510925293, -1.6517975330352783, 1.0076926946640015, 2.1546623706817627, -0.25140461325645447, -0.3991413116455078, -1.4572937488555908, -1.1536657810211182, -0.5988246202468872, -1.1781145334243774, 1.1772801876068115, 1.5144615173339844, 0.8354514241218567], [14.839666366577148, 4.086111068725586, 0.03841814771294594, -0.02897920459508896, 14.660225868225098, 2.3040268421173096, -0.29517892003059387, 0.9252123832702637, 0.19886086881160736, -0.05773905664682388, -0.9101840853691101, 0.2618890702724457, 1.9928618669509888, 14.02852725982666, 2.008084535598755, 0.4178702235221863, 14.030437469482422, -0.6708791255950928, 0.15896062552928925, 0.5054064393043518, 1.7718170881271362, 0.0039014392532408237, 3.892825126647949, 0.5091615319252014, 0.2628534734249115, 1.7525286674499512], [2.8928637504577637, 9.920296669006348, 0.3757097125053406, -1.7756932973861694, 1.066558837890625, 7.568359375, 0.2005702555179596, 1.52603280544281, -0.573668897151947, -1.0297284126281738, -0.026312192901968956, -0.8846278786659241, 12.1737642288208, 1.0608913898468018, -1.5892932415008545, -0.1746359020471573, 0.9730198383331299, 0.5166709423065186, 0.8859772086143494, -1.556686282157898, -0.2888316214084625, -0.24648688733577728, 8.93224048614502, 1.2695577144622803, 0.7301642298698425, -1.1296112537384033], [0.6668400168418884, 1.1553980112075806, 0.6703576445579529, 2.300513505935669, 0.9832062125205994, 2.0675621032714844, 0.4070112705230713, 0.6475309133529663, 0.45574870705604553, -1.3679410219192505, 0.45029982924461365, -0.9035016894340515, 1.520207405090332, 0.4977841377258301, -7.561356544494629, -1.0038424730300903, 0.9566629528999329, 1.516257882118225, 2.13765811920166, 0.0859578475356102, -0.9079708456993103, -0.23506693542003632, 1.1364648342132568, -1.2996348142623901, -0.7870751023292542, -0.6609402298927307], [0.7714585065841675, 0.8845661878585815, 0.8969722390174866, -1.5958141088485718, 0.29971176385879517, 1.1447227001190186, -0.31682249903678894, -1.5687255859375, -0.01186478603631258, -0.6114072799682617, 1.392615795135498, -0.9775673747062683, 0.957975447177887, 0.8693696856498718, -2.416382312774658, -3.3976316452026367, 1.1735659837722778, -0.034227460622787476, 1.038877248764038, -0.3106521666049957, 0.11664805561304092, -0.30750349164009094, 0.7359877228736877, -0.24558335542678833, -0.891528308391571, 0.7532738447189331], [0.5087878704071045, 0.8238330483436584, 1.1356784105300903, 0.6876553297042847, 1.0814692974090576, 0.5123490691184998, -4.502450466156006, -0.16039767861366272, 1.13711416721344, 0.6568863987922668, 1.4008499383926392, -0.742855966091156, 0.6606882214546204, 0.8702499270439148, 0.81252521276474, -2.2278432846069336, 1.176830530166626, -1.331214189529419, -2.4039177894592285, 0.4726758599281311, 0.7124562859535217, -0.37172457575798035, 0.25995489954948425, -0.20094609260559082, -2.190291404724121, -0.4285027086734772], [0.6516410112380981, 0.86561119556427, 0.8525593280792236, 0.13317666947841644, 0.9420900940895081, 0.9144697189331055, -0.45195403695106506, 0.20665018260478973, 0.15645629167556763, 1.2321394681930542, 1.7269865274429321, -0.046907372772693634, 1.008324146270752, 1.0429747104644775, 0.5189458727836609, 2.0105385780334473, 1.0348325967788696, -0.8900275826454163, -0.48808711767196655, 1.5820986032485962, -0.6149278283119202, 0.3119508624076843, 0.4833712875843048, 0.5101985931396484, -1.1234350204467773, -0.05818367004394531], [0.8268221616744995, 1.001762866973877, 0.7668425440788269, -0.09900292754173279, 0.8961529731750488, 1.1871775388717651, 1.0397809743881226, 0.20484592020511627, 0.8979170918464661, 1.7016719579696655, 0.8010353446006775, -0.43649953603744507, 0.9054349660873413, 0.4446789622306824, -0.19514834880828857, 2.237551689147949, 0.5537150502204895, 0.1105971559882164, 0.24930742383003235, 1.7744600772857666, -0.07476627826690674, -0.07823140174150467, 0.7488927245140076, -0.31612738966941833, -1.1608268022537231, 0.27355706691741943], [1.0351243019104004, 1.4533997774124146, 0.7648422122001648, -0.47514355182647705, 0.41649410128593445, 1.0585514307022095, -0.8014814853668213, -0.5059072375297546, -0.8191347122192383, 1.7610857486724854, -1.2450227737426758, -0.4726768434047699, 1.4111459255218506, 1.015781283378601, 0.36637160181999207, 0.28266873955726624, 0.6247120499610901, 1.7897568941116333, 0.08224289119243622, 2.8707094192504883, -0.9334374070167542, 0.648526668548584, 0.7683862447738647, 0.9487294554710388, -0.12921197712421417, -0.13603994250297546], [1.1143394708633423, 0.9920855760574341, 0.8758350610733032, 0.5486745238304138, 0.9272654056549072, 0.930420994758606, -1.0294058322906494, 0.23674750328063965, 0.5067945122718811, 1.2551246881484985, -1.9608618021011353, 1.2557278871536255, 0.5891196727752686, 0.46253836154937744, 1.194827675819397, -0.4991223216056824, 1.0679600238800049, 0.6466737985610962, 0.18332040309906006, 0.6667178869247437, 0.16734586656093597, 1.200860857963562, 0.8332450985908508, -0.7884297370910645, -1.07156503200531, -0.0731191411614418], [0.6517595052719116, -0.1661594957113266, 1.8302289247512817, 6.678712368011475, 1.0846853256225586, 0.20227892696857452, 0.3477040231227875, 0.052937936037778854, -2.061063528060913, -1.0619629621505737, -0.13614630699157715, 0.8942863345146179, -0.2561289668083191, 0.9455673098564148, 1.9675071239471436, 0.044619277119636536, 0.6982876658439636, -0.589629054069519, 0.40470242500305176, 0.9973783493041992, 3.903021812438965, -1.7273106575012207, 0.7586289048194885, -0.6638067364692688, 2.2452621459960938, 0.24253281950950623], [0.3632575571537018, -1.3522006273269653, 0.2240968495607376, 6.506059169769287, 0.5930590033531189, -1.080119252204895, 1.6767346858978271, -0.15111877024173737, 2.4385409355163574, -1.138519287109375, -0.47311118245124817, 0.442897230386734, -0.9161556363105774, 1.1759939193725586, 2.8464455604553223, 1.2304798364639282, 0.588904082775116, -0.44408777356147766, -0.8257499933242798, -1.0105482339859009, -15.487723350524902, 4.257989406585693, 0.5532221794128418, 0.40669599175453186, 1.753734827041626, -0.5189288854598999]], "biases": [-1.00205397605896, -1.1477057933807373, -0.01069168746471405, 0.2684052884578705, -0.945326566696167, 0.011726615019142628, 2.895583152770996, -0.44987279176712036, 2.2213339805603027, -0.840135931968689, -0.4488256871700287, -0.2474002242088318, -2.002300977706909, -0.6109437346458435, 1.7386934757232666, -0.6125198006629944, -0.815054178237915, -0.6854726076126099, 0.02860642969608307, -0.698988676071167, -0.6453396677970886, 4.257602691650391, 0.4993669092655182, -0.46628206968307495, -1.5213336944580078, -0.6880086064338684]}, {"weights": [[0.8263928294181824, 0.44238951802253723, 0.8198198676109314], [0.6891983151435852, 0.9975839257240295, 1.1757607460021973], [-2.290276050567627, -1.7290804386138916, -2.266801357269287], [-2.9477646350860596, -3.8892717361450195, -4.345715522766113], [0.1380665898323059, 1.2676355838775635, 0.45437708497047424], [1.2416305541992188, 2.087235927581787, 1.8238850831985474], [-8.866998672485352, -6.714372158050537, -4.779973030090332], [7.120850563049316, 7.949140548706055, 6.811254501342773], [-5.464829444885254, -7.665830612182617, -7.265115261077881], [7.223706245422363, 6.882058143615723, 6.902087211608887], [8.57280158996582, 7.6386189460754395, 9.139552116394043], [3.2720577716827393, 1.9789314270019531, 2.2800238132476807], [1.314589023590088, 0.8224912285804749, 0.8374884724617004], [0.2064133882522583, 0.5247015953063965, 0.8047434091567993], [-4.036432266235352, -2.011159896850586, -2.3885154724121094], [-2.6590473651885986, -4.787303924560547, -3.8227479457855225], [0.11861301213502884, 0.7789548635482788, 0.7401772141456604], [5.964389801025391, 6.320080757141113, 6.993105411529541], [-3.035632371902466, -2.406614065170288, -1.7018710374832153], [-1.7402615547180176, -2.0888752937316895, -1.7980564832687378], [-5.020517349243164, -3.7119662761688232, -3.192920446395874], [-3.2820591926574707, -2.8008148670196533, -2.575064182281494], [0.8147717714309692, 0.8779128789901733, 0.6723451018333435], [-2.923243999481201, -2.9315624237060547, -3.4744949340820312], [2.754499673843384, 3.0421204566955566, 2.541813611984253], [6.057393550872803, 5.303977012634277, 6.147636413574219]], "biases": [0.1278505027294159, 0.38224726915359497, 0.2203322798013687]}, {"weights": [[-17.801986694335938], [-20.87189483642578], [-19.340456008911133]], "biases": [17.25050163269043]}]}