{"size": 13, "layers": [{"weights": [[0.09733296185731888, -0.23823949694633484, -0.7310194373130798, 0.9120860695838928, 1.051770806312561, -0.4567798972129822, -0.2588105797767639, -1.4118599891662598, 0.5526348948478699, -0.10492359101772308, -1.056251883506775, -0.2768394351005554, -0.6309534311294556, 0.939110517501831, 0.4328140914440155, 0.3993077576160431, -0.8173062205314636, -1.6208827495574951, 1.136932611465454, 0.30954861640930176, 0.6844606399536133, 1.3686145544052124, -0.955888569355011, -0.9540027976036072, -0.9554341435432434, -0.9890052676200867], [0.05901025980710983, -0.3866417706012726, -0.9507572650909424, -1.5812119245529175, 1.7398301362991333, -0.7232794165611267, 1.0137617588043213, 0.04452144727110863, 0.876636803150177, -0.48065316677093506, -0.8272562623023987, -0.6532343029975891, 0.21358957886695862, -2.184605598449707, 0.37746965885162354, 0.257472962141037, 0.0819491297006607, -0.5729935765266418, -0.035708434879779816, -0.5582367181777954, -0.025645393878221512, -2.3554420471191406, 0.10365010052919388, -0.7767066955566406, 0.06557632237672806, -0.25830474495887756], [-0.09508191794157028, -0.17733219265937805, -0.12821775674819946, 1.9855371713638306, -0.2095915526151657, -0.10894971340894699, -0.06040768325328827, -0.4958857297897339, 0.5376155376434326, 1.1155979633331299, -0.5649614930152893, -0.2720854878425598, 0.3179880976676941, 1.14543879032135, 0.5500654578208923, -1.9775421619415283, 0.5384010076522827, 0.32491758465766907, -0.6818562746047974, -1.3566302061080933, 0.5927613377571106, 0.8875254988670349, 0.05675265192985535, -0.4980379045009613, -0.3691301941871643, 1.4319733381271362], [-0.49704450368881226, 0.23572216928005219, 1.0190922021865845, -1.616552710533142, -0.06841721385717392, 0.4026598632335663, -0.2904950976371765, -0.43643632531166077, -0.30651554465293884, -1.7750873565673828, 0.041472189128398895, 0.5397391319274902, 1.9057259559631348, 0.08477772772312164, -0.013550600968301296, 0.8526137471199036, 1.2233967781066895, 0.6367145776748657, -0.633007824420929, -1.0091965198516846, 0.5066279768943787, 0.3833276629447937, 0.5071072578430176, 0.41952988505363464, 1.2993687391281128, 1.144623041152954], [0.13185204565525055, 1.6382195949554443, 1.7918351888656616, 0.2700352668762207, -0.25152260065078735, 0.0659630224108696, 0.49130764603614807, -0.20470833778381348, 0.4585954248905182, 1.5590145587921143, 0.3512515127658844, 0.1294449269771576, 0.7995216250419617, -0.5054423809051514, -1.0654277801513672, 0.39687132835388184, 1.2811388969421387, 0.24877703189849854, -1.026753306388855, 0.32628604769706726, -0.04239121451973915, 0.08026228845119476, -0.07408027350902557, 1.439301609992981, 0.04834027588367462, -1.1596925258636475], [-0.3928676247596741, 1.6374636888504028, -0.13434815406799316, 0.2831153869628906, 0.1666664034128189, -0.06438128650188446, -1.091892957687378, 0.43551287055015564, -0.3113150894641876, -0.7564888000488281, 0.3768812119960785, 0.1758548617362976, -0.33706361055374146, 0.5335433483123779, -1.5140695571899414, -0.4111310839653015, -2.007283926010132, 0.992613673210144, -1.0282148122787476, 0.7011728286743164, 0.3109549880027771, -0.4778381884098053, 0.21524623036384583, 1.240352988243103, 0.9353540539741516, -0.6782617568969727], [-1.1104177236557007, -0.4192729592323303, -1.2069894075393677, -0.49313950538635254, -0.17152824997901917, -0.43872061371803284, 1.191299557685852, 0.8279709815979004, 0.011571447364985943, 0.3270236551761627, 0.9068022966384888, 0.6205891966819763, -0.7271408438682556, -1.1593973636627197, -1.3046811819076538, 0.20477351546287537, -0.6580755114555359, 1.0806821584701538, 1.1830185651779175, 0.944240391254425, 0.06054117903113365, 1.0370405912399292, -0.520247757434845, 0.5703656673431396, -1.5390679836273193, -0.14520421624183655], [0.25221559405326843, -1.211955189704895, -0.8494669795036316, 1.6202564239501953, 0.09518256783485413, 1.1960424184799194, -0.8078759908676147, 0.09931034594774246, -0.9152920246124268, -0.18306228518486023, 1.7086797952651978, -0.7963744401931763, 0.9891164302825928, 0.1373162865638733, 0.06086498871445656, 0.5898767709732056, 0.881359338760376, 0.951261579990387, 1.9430313110351562, 1.3709948062896729, 0.5138815641403198, 0.10802211612462997, -3.10975980758667, -0.1892092525959015, 1.0892012119293213, 1.5463364124298096], [-4.979249477386475, -1.0052673816680908, 0.7395157217979431, -0.6804108619689941, -0.4954434931278229, 2.210283041000366, 1.260383129119873, -0.12101063132286072, 0.82689368724823, -0.19267870485782623, 1.104871392250061, -0.2997640073299408, -0.8960810899734497, 0.08949209004640579, 1.3313504457473755, -0.5757635235786438, -1.2877717018127441, -0.2765525281429291, 0.8841677308082581, 0.887269139289856, -0.5185478925704956, -0.34898245334625244, 0.19636236131191254, 0.09362795203924179, -0.20386113226413727, 2.087400436401367], [-1.3942574262619019, -0.5038315653800964, 1.0284037590026855, 0.7415876984596252, -2.4824156761169434, 2.857527017593384, 0.2574315369129181, -0.014224550686776638, -1.9110058546066284, -0.23599942028522491, 1.5578874349594116, -0.856767475605011, -2.205188274383545, -0.12040172517299652, 1.1848695278167725, -0.5983365774154663, 0.18106421828269958, -0.6912007331848145, -0.5093172788619995, -0.1933065801858902, -0.3581799566745758, 1.2315009832382202, 0.4048402011394501, -0.048506639897823334, -1.100218653678894, -1.0246248245239258], [-2.4764516353607178, -1.1391116380691528, -0.1412612795829773, 0.22830453515052795, -3.3458731174468994, -1.0052496194839478, 0.10216429829597473, 0.3627766966819763, -0.38202980160713196, -0.9205462336540222, 1.2089499235153198, -0.6282251477241516, -2.3730688095092773, 0.4626137912273407, 0.4544525146484375, -0.0798192024230957, 0.4834028482437134, -0.716951847076416, -1.1521130800247192, -1.1900780200958252, -1.0326735973358154, -2.6600427627563477, 0.40703439712524414, -0.12768135964870453, -0.020208580419421196, -1.9193482398986816], [1.7928606271743774, 0.3104855418205261, -0.12549220025539398, -1.40647554397583, -2.3444278240203857, -3.239053964614868, 0.9531745314598083, 0.20742855966091156, 0.7270616888999939, 1.1928222179412842, -0.7378886342048645, 0.10831232368946075, -0.37378162145614624, 0.5312749743461609, 0.23379766941070557, -0.9965837597846985, 0.4799957573413849, -0.08034168928861618, -0.8838623762130737, -0.3431420624256134, -4.049097061157227, 1.946373701095581, 1.783341407775879, 3.2211737632751465, -0.16960564255714417, 0.15802977979183197], [-2.652669668197632, 1.5214728116989136, -0.1618460863828659, -0.19980351626873016, -0.8078516125679016, -1.657945156097412, -1.7961946725845337, 0.9847273826599121, -3.4571034908294678, -0.3016073703765869, -2.9572348594665527, -1.2601193189620972, 1.1958657503128052, -1.7405517101287842, 1.0375019311904907, -8.66042709350586, -0.5899559259414673, 0.026514893397688866, 0.1272653043270111, 0.29598864912986755, -1.3027740716934204, -2.701663017272949, -2.1642203330993652, 10.496417045593262, -1.0749057531356812, -0.5709095001220703]], "biases": [2.2342591285705566, -0.18513406813144684, 0.7696223855018616, -0.6726670861244202, -2.144392967224121, 0.6124284267425537, -3.555799722671509, 2.595172643661499, -2.0635673999786377, 0.6961994171142578, -0.6230999231338501, 4.224969863891602, 1.6681993007659912, -0.8558011054992676, -0.34606146812438965, -0.6058217287063599, -2.8539750576019287, -1.3024320602416992, 2.52500581741333, 0.8112552762031555, -3.5587573051452637, 0.5018513798713684, 2.600694179534912, 0.3138817548751831, 1.402050495147705, 0.12127590924501419]}, {"weights": [[-0.7033730745315552, 1.018221378326416, -0.31536656618118286, 0.777653157711029, -1.6834449768066406, -2.241575002670288, -1.005651831626892, -1.989196538925171], [-1.1040102243423462, 0.9394325613975525, -0.9389146566390991, 1.6453754901885986, -3.5450103282928467, -1.825486660003662, -0.6657735109329224, -0.537083089351654], [-1.2570151090621948, 2.5937094688415527, -7.797450542449951, -0.1376318633556366, -4.203871250152588, -7.8083624839782715, -1.946366548538208, 3.5085229873657227], [2.722848415374756, 1.1465494632720947, 1.9060300588607788, -0.8498315215110779, 2.394200325012207, 1.9457210302352905, 0.24920211732387543, 0.6234912276268005], [1.5143052339553833, 0.19241991639137268, 0.3885737657546997, -0.42558297514915466, 0.04272335767745972, 1.2650845050811768, 0.9166306853294373, 0.0531080886721611], [0.5169054269790649, -1.4650096893310547, -4.785508632659912, 0.8338217735290527, 0.1508554220199585, 2.574558734893799, -1.189858078956604, -0.5241703391075134], [-0.6517233848571777, 0.7661699652671814, 1.8416272401809692, -0.509562611579895, -3.2802677154541016, 1.0313833951950073, 0.586497962474823, 0.6878913044929504], [-4.053204536437988, -3.5365540981292725, -10.666865348815918, 2.6529653072357178, -11.57886791229248, 9.198647499084473, -0.8488019108772278, 0.48197412490844727], [-0.03590753674507141, 0.6453125476837158, 0.1811760663986206, -0.24954849481582642, -0.10515788197517395, 0.2628225088119507, 0.8237660527229309, 0.6257410049438477], [-1.3313138484954834, -1.1103593111038208, -6.887001037597656, 1.1949230432510376, -1.768144130706787, -2.3667497634887695, -0.23015259206295013, -1.3610402345657349], [-1.1043429374694824, -0.056741222739219666, -1.8850361108779907, 0.8116527795791626, -4.585547924041748, -4.306869029998779, 0.08896905928850174, -1.6060538291931152], [0.6494999527931213, 0.9048073887825012, -5.770047187805176, 1.4764032363891602, 0.2107834666967392, -1.041715145111084, -0.8496376872062683, 0.33107924461364746], [-4.355841636657715, -0.2858148217201233, 0.0022652994375675917, 0.980790913105011, -6.094589710235596, -0.7064630389213562, -0.7587636709213257, -1.177823543548584], [-8.346111297607422, -2.9404077529907227, -2.152109146118164, 0.9387491941452026, -2.092902660369873, -2.8793866634368896, 0.47399067878723145, -1.8670119047164917], [0.07588726282119751, -3.562319278717041, 0.4348796606063843, -2.0749619007110596, -0.9116835594177246, 1.312131643295288, 1.1547991037368774, 1.325606107711792], [-0.891944408416748, -1.060139775276184, -5.783919811248779, -0.47616609930992126, -1.7192374467849731, -3.0334885120391846, 0.38275301456451416, -3.267982244491577], [-3.106003761291504, -2.0972900390625, 2.016652822494507, -0.1657031774520874, -4.853105068206787, 0.8136712312698364, -0.10971242934465408, 1.7110270261764526], [-3.978048324584961, 2.064316987991333, -0.19631150364875793, -3.146833896636963, -9.398000717163086, 1.995661735534668, 3.426201105117798, -0.2986958622932434], [0.09001053869724274, -1.574304223060608, -1.946083664894104, 0.9265503287315369, -0.42423972487449646, -0.8895400166511536, -0.1169460117816925, -1.7051210403442383], [2.426555633544922, 0.9177311658859253, 2.4583253860473633, -2.250486135482788, 11.938558578491211, -0.65384840965271, 3.0010201930999756, -5.334517478942871], [0.2617219388484955, 0.18239983916282654, 0.7407401204109192, 0.09782327711582184, -0.6188395023345947, 0.7212873697280884, 0.7463154196739197, 0.6907666921615601], [3.0954341888427734, 0.36524030566215515, 2.294830560684204, -0.3507659435272217, 1.8506110906600952, 1.9209790229797363, -0.03206683322787285, 0.39327719807624817], [0.1420915573835373, -0.18426521122455597, -3.5017871856689453, 2.0710294246673584, -1.2169538736343384, -1.192137598991394, -1.5173670053482056, 1.6697235107421875], [2.677304267883301, 3.4007725715637207, 0.3686254918575287, 0.807307243347168, -2.38722825050354, -2.514352321624756, -0.9850801825523376, 1.8482359647750854], [1.9368679523468018, 0.579157829284668, -3.692277669906616, 1.1557881832122803, -3.8353145122528076, 0.023382140323519707, -1.1307204961776733, 2.846289873123169], [-2.590942621231079, -1.5674855709075928, -2.1399435997009277, 0.7384886741638184, -7.284851551055908, -1.5876686573028564, -0.09860733896493912, 0.34667134284973145]], "biases": [0.6322107315063477, 0.28017881512641907, 0.5707690119743347, -0.02233245223760605, -0.3896535336971283, 0.1653987467288971, 0.5020939111709595, 0.6285554766654968]}, {"weights": [[-0.28405892848968506, 0.47136566042900085, 0.09082972258329391, -0.33209702372550964, -0.2228640764951706, 0.17778325080871582, -0.4328036606311798, 0.16969752311706543], [-1.6899595260620117, 0.0031801399309188128, 0.28280675411224365, -0.7531448602676392, 1.063124656677246, 0.5578085780143738, -1.4118283987045288, 1.0178685188293457], [1.386114239692688, -0.8111867308616638, -0.5073606967926025, -0.3468764126300812, -0.19180220365524292, -0.6157494187355042, 0.816343367099762, -0.8848505616188049], [1.9246476888656616, -2.3690359592437744, -2.1783511638641357, -2.298532247543335, -2.4926047325134277, -2.3115642070770264, 2.4428439140319824, -2.4718575477600098], [1.8071255683898926, -1.6139384508132935, -1.0250746011734009, -1.0623427629470825, -1.5032650232315063, -1.8220207691192627, 1.440071702003479, -1.5373247861862183], [-0.18162113428115845, -0.289413720369339, -0.08720006048679352, -0.10545706003904343, -0.7159255146980286, -0.292633056640625, -0.21357417106628418, -0.113348089158535], [-2.567355155944824, 2.753404378890991, 2.7777068614959717, 3.0758068561553955, 2.8919246196746826, 2.693220853805542, -2.636662483215332, 2.6149063110351562], [-1.1684002876281738, 0.6437205672264099, 1.4585462808609009, 1.6240029335021973, 0.10592954605817795, 1.280391812324524, -1.3487255573272705, -0.07254765927791595], [-0.5657145977020264, 0.5812305808067322, 0.4964185953140259, 0.2596193850040436, -0.14525072276592255, 0.5196580290794373, -0.10141558945178986, -0.07301123440265656], [-1.2500649690628052, 1.4270762205123901, 1.1197882890701294, 1.5700653791427612, 0.19254745543003082, 1.317343831062317, -0.08882594108581543, 0.08273185044527054], [0.8163532018661499, -0.5737065076828003, -0.5724732279777527, -0.7678685188293457, -0.6527113318443298, -0.6004599928855896, 0.38449621200561523, -0.4188316762447357], [1.772250771522522, -2.393472671508789, -2.42533802986145, -2.483281135559082, -2.089036464691162, -1.9342317581176758, 1.8893574476242065, -2.4938509464263916], [1.3230024576187134, -1.3832075595855713, -1.7445063591003418, -1.2363888025283813, -0.8852999806404114, -1.5560468435287476, 1.1038970947265625, -1.4606032371520996], [0.2757883369922638, 0.001185337663628161, -0.0016203585546463728, -0.15486524999141693, 0.4873034358024597, 0.15936952829360962, -0.4347575008869171, -0.24385766685009003], [-2.8390069007873535, 2.5939879417419434, 2.6058993339538574, 2.8848557472229004, 2.5962769985198975, 2.9856250286102295, -3.3938281536102295, 2.6999330520629883], [-0.9429792761802673, 1.2411646842956543, 1.329606533050537, 0.2738688886165619, 1.5286942720413208, 1.542323112487793, -1.0260229110717773, 1.6749626398086548]], "biases": [0.14838925004005432, -0.26874369382858276, -0.402077853679657, -0.5568588376045227, -0.6294032335281372, -0.511898934841156, 0.5102004408836365, -0.24350091814994812]}, {"weights": [[1.9898386001586914, -1.6289137601852417, 2.0501441955566406, 1.7344502210617065, -1.561541199684143, -1.7499420642852783, 0.8828899264335632, 1.272586703300476], [-1.8777917623519897, 0.6878147125244141, -1.6639188528060913, -0.9035285115242004, 1.1476383209228516, 1.1137926578521729, -1.0367212295532227, -1.533035397529602], [-1.6449733972549438, 1.0457825660705566, -1.035446047782898, -0.8022894263267517, 0.5663411021232605, 1.246842384338379, -1.4198555946350098, -1.1671876907348633], [-1.2325446605682373, 1.8450665473937988, -1.7957364320755005, -1.0542353391647339, 1.2719972133636475, 1.5982517004013062, -1.1969385147094727, -0.9527352452278137], [-0.7825595140457153, 0.7699695229530334, -1.567612886428833, -1.1927199363708496, 0.8377731442451477, 0.4659302532672882, -1.231352686882019, -0.6649793386459351], [-1.6859655380249023, 0.857016921043396, -1.354202151298523, -1.0041548013687134, 1.2734105587005615, 1.0477397441864014, -1.1908725500106812, -1.456891655921936], [1.3616511821746826, -2.3927690982818604, 1.9125916957855225, 1.0028501749038696, -2.400266170501709, -1.6669130325317383, 0.7262130975723267, 1.6466675996780396], [-1.0483683347702026, 1.3437702655792236, -0.670755922794342, -1.7271630764007568, 1.4690850973129272, 1.150334358215332, -0.8203242421150208, -1.6865766048431396]], "biases": [0.7847323417663574, -0.7150786519050598, 0.6092656850814819, 0.19767780601978302, -0.5928189754486084, -1.0318162441253662, -0.012909487821161747, 0.704517126083374]}, {"weights": [[-1.910588026046753, 2.1220357418060303, 1.3557945489883423, -1.7104930877685547, -1.9235644340515137, 1.5193308591842651, 1.6923489570617676, -2.1195709705352783], [2.021975040435791, -2.0319838523864746, -2.321030855178833, 2.0238094329833984, 1.9925435781478882, -1.810460090637207, -1.2216582298278809, 1.8890678882598877], [-1.9897356033325195, 2.4076220989227295, 2.5894601345062256, -2.011352777481079, -1.8918564319610596, 2.58351731300354, 2.1777522563934326, -1.9048935174942017], [-0.8857813477516174, 1.3314810991287231, 1.3138290643692017, -1.468885064125061, -0.5897448062896729, 1.1300908327102661, 1.3885589838027954, -0.8441852927207947], [1.5858044624328613, -1.065119743347168, -2.258607864379883, 1.7759288549423218, 1.766850233078003, -0.851477861404419, -2.0639243125915527, 1.7001237869262695], [1.7590876817703247, -1.3985730409622192, -1.019497036933899, 1.5009857416152954, 1.270309329032898, -1.0093164443969727, -1.7350025177001953, 1.4343611001968384], [-0.9344773888587952, 0.5489936470985413, 0.818372905254364, -0.7235406041145325, -0.21507315337657928, 0.4363464117050171, 0.725952684879303, -0.5741069316864014], [-1.723308801651001, 1.1623725891113281, 1.3950221538543701, -1.0965644121170044, -1.1651428937911987, 1.691307783126831, 1.2647608518600464, -1.5661906003952026]], "biases": [-0.17680519819259644, -0.10065464675426483, 0.022224340587854385, -0.029389342293143272, -0.012176119722425938, 0.2772442698478699, 0.06406237185001373, -0.21888107061386108]}, {"weights": [[3.0837881565093994, -3.0686261653900146, -1.3998160362243652, -3.4114232063293457, 2.060628890991211, 4.321667194366455, -1.8342344760894775, 1.3514999151229858], [-1.328365445137024, 0.9714140892028809, 1.3343467712402344, 0.9314024448394775, -0.5305795073509216, -0.36138904094696045, 1.1685669422149658, -1.6150802373886108], [-1.8253834247589111, 0.9958361983299255, 0.5635899305343628, 0.8284667134284973, -0.8166683316230774, -1.545201301574707, 1.4558606147766113, -1.2184524536132812], [2.533762216567993, -1.932905673980713, -1.7609338760375977, -2.919750213623047, 1.7127715349197388, 4.146758556365967, -2.507437229156494, 0.325778603553772], [1.58207106590271, -1.5643504858016968, -1.4908721446990967, -3.5266730785369873, 2.052907705307007, 4.4940505027771, -2.3075478076934814, 0.7634069323539734], [-0.4683988690376282, 0.9648498296737671, 1.465956211090088, 0.4271377921104431, -0.7417493462562561, -0.019996345043182373, 0.9812681674957275, -2.4810287952423096], [-1.6440496444702148, 1.6555922031402588, 0.8776997327804565, 0.7414591908454895, -0.681618869304657, -1.398419737815857, 1.0825248956680298, -1.0872641801834106], [2.0576324462890625, -2.8283278942108154, -2.1860179901123047, -3.313506603240967, 2.734368324279785, 4.455623626708984, -1.7835628986358643, 1.4286473989486694]], "biases": [0.33232352137565613, -0.24842455983161926, -0.14695467054843903, -0.7980074286460876, 0.7242669463157654, 0.7555428147315979, -0.3664657473564148, -0.8407647609710693]}, {"weights": [[1.644765019416809, -2.6125686168670654], [-0.8688309788703918, -0.01682543009519577], [-0.40802934765815735, 1.083993673324585], [-3.768238067626953, 4.201916217803955], [1.5489273071289062, -1.6105118989944458], [1.624983549118042, -1.0885016918182373], [-0.8093678951263428, 0.3863699734210968], [2.8542041778564453, -3.762779712677002]], "biases": [-0.6637132167816162, 0.6624664068222046]}]}