{"size": 13, "layers": [{"weights": [[0.47366058826446533, 0.05995108187198639, -0.34890368580818176, -0.3670085072517395, -0.0447201281785965, 0.5355164408683777, -0.174543559551239, -0.37370848655700684, 0.10390278697013855, 0.4466305673122406, -0.47737202048301697, -0.239737868309021, 0.4684738218784332], [0.23961091041564941, -0.3644316792488098, 0.658176839351654, 0.27045127749443054, -0.32996201515197754, -0.09867002069950104, 0.2308838963508606, 0.28458157181739807, -0.4937741458415985, 0.2769943177700043, 0.02942659705877304, 0.3867383301258087, -0.24419431388378143], [-0.11786027252674103, 0.13126032054424286, -0.32445383071899414, 0.11743275076150894, -0.2676007151603699, 0.3568733036518097, 0.05865229293704033, 0.18136250972747803, 0.25732553005218506, -0.41253790259361267, 0.5034660696983337, 0.205773264169693, 0.01496052648872137], [0.012139668688178062, 0.37676453590393066, 0.03847891464829445, -0.27350422739982605, 0.3345549702644348, -0.05659584328532219, -0.12480825930833817, -0.06413024663925171, -0.15510480105876923, -0.294279545545578, 0.6326038241386414, 0.4136717617511749, -0.19746100902557373], [-0.4114454686641693, 0.47411149740219116, -0.010344566777348518, 0.07501828670501709, 0.19333191215991974, -0.024315062910318375, 0.03124774433672428, 0.8099436163902283, 0.17220766842365265, -0.29997625946998596, -0.1910756230354309, 0.12310239672660828, 0.04791503772139549], [-0.14156346023082733, 0.09363134205341339, -0.20740480720996857, -0.48224687576293945, -0.12984886765480042, -0.5365554094314575, -0.24845391511917114, 0.1571924090385437, -0.32166749238967896, -0.2627923786640167, -0.28028184175491333, -0.5736077427864075, 0.24769535660743713], [-0.02840128354728222, -0.024778205901384354, -0.22662228345870972, 0.044171176850795746, -0.2295396476984024, -0.3942992687225342, 0.8282690048217773, 0.16933338344097137, -0.13912524282932281, 0.2200930118560791, -0.18794795870780945, -0.5813653469085693, 0.26674774289131165], [-0.2633246183395386, 0.06732399761676788, -0.18261048197746277, 0.5799210071563721, -0.512313187122345, -0.29357483983039856, 0.6755698919296265, -0.5494900941848755, 0.34285658597946167, 0.3516656458377838, 0.3122842013835907, 0.08391160517930984, -0.12751196324825287], [0.018955964595079422, 0.40030696988105774, -0.5960780382156372, 0.6526959538459778, 0.454603374004364, 0.10478006303310394, 0.11050502210855484, -0.42743155360221863, 0.14787638187408447, 0.3510330617427826, 0.3152634799480438, 0.22529226541519165, -0.12251615524291992], [0.3141498565673828, 0.08329837024211884, 0.2608150541782379, 0.5176099538803101, 0.46781793236732483, 0.06167801097035408, -0.49784910678863525, 0.12840746343135834, 0.3598586320877075, 0.25354644656181335, -0.20268577337265015, 0.024434557184576988, -0.6783109307289124], [1.009756088256836, -0.05734887719154358, 0.6099050641059875, -0.47615742683410645, 0.12411188334226608, 0.2292381376028061, -0.4277425706386566, -0.3665922284126282, -0.4387420415878296, -0.4930044710636139, -0.5895748138427734, -0.13153675198554993, -0.5452567338943481], [-0.1301279515028, 0.16554032266139984, 0.039238471537828445, -0.2568603456020355, -0.9733848571777344, 0.30300620198249817, -0.316450297832489, -0.21171121299266815, -0.5085024833679199, -0.33092787861824036, -0.12654446065425873, -0.1485927253961563, 0.6334895491600037], [0.051842331886291504, 0.3352530896663666, -0.7794375419616699, -0.4182621240615845, -0.0440642386674881, 0.16797684133052826, -0.5926178097724915, -0.3108702003955841, 0.17306911945343018, 0.2778320908546448, 0.08001352846622467, -0.18517367541790009, 0.9449536204338074]], "biases": [-0.22680887579917908, -0.15598340332508087, -0.12652993202209473, 0.40907618403434753, 0.35179731249809265, -0.13835634291172028, -0.012364567257463932, 0.3837677240371704, 0.3172731101512909, 0.15140287578105927, 0.16723188757896423, 0.2941437363624573, -0.09608221799135208]}, {"weights": [[0.37175795435905457, 0.2991330921649933, -0.41546791791915894, 0.31179824471473694, -0.48126187920570374, -0.20554235577583313, 0.025542395189404488, 0.10035955160856247, -0.03752635419368744, 0.45204511284828186, -0.06907688826322556, -0.2576826214790344, 0.3986673355102539], [0.468821257352829, -0.11395879089832306, 0.4348863959312439, 0.33177855610847473, 0.05913364887237549, 0.272352397441864, 0.39511212706565857, 0.43729132413864136, -0.3208916485309601, 0.30110079050064087, -0.34068164229393005, 0.43718042969703674, -0.2509634494781494], [-0.37106430530548096, 0.5790911316871643, -0.17209365963935852, -0.47440123558044434, 0.5607945919036865, -0.48647505044937134, 0.34281089901924133, 0.32058802247047424, -1.0518088340759277, -0.047245994210243225, -0.024112556129693985, -0.22097598016262054, 0.3126533627510071], [0.5457348227500916, 0.15566132962703705, 0.4253613352775574, 0.32833513617515564, -0.005900767631828785, 0.5915349721908569, -0.7236420512199402, -0.3710225224494934, 0.028896110132336617, 0.18918739259243011, -0.23487289249897003, -0.46208101511001587, 0.05028026923537254], [-0.544581949710846, 0.03945893049240112, 0.7333105802536011, -0.5132927894592285, -0.1541670709848404, 0.10823504626750946, -0.27232906222343445, 0.42860403656959534, -0.4756198823451996, -0.14666332304477692, -0.46074405312538147, -0.025365157052874565, -0.1353696584701538], [-0.9857559204101562, 0.6218541264533997, 0.23772740364074707, 0.18082468211650848, 0.28054559230804443, -0.7573282718658447, -0.7654598951339722, -0.12870515882968903, -0.3987697660923004, 0.15721338987350464, 0.14805132150650024, -0.5110375285148621, 0.45201247930526733], [0.5169863700866699, 0.016843294724822044, -0.5700784921646118, -0.1964462250471115, -0.5843777060508728, 0.34846213459968567, 0.3851794898509979, -0.3408810794353485, -0.5092965364456177, -0.015055181458592415, 0.24397480487823486, -0.38447532057762146, -0.04489324614405632], [-0.26446333527565, -0.515558660030365, 0.1466032713651657, -0.2216186374425888, -0.4061199426651001, -0.28908804059028625, 0.5938219428062439, 0.34486037492752075, -0.021975047886371613, -0.33764758706092834, -0.22362525761127472, 0.3722226619720459, 0.26015138626098633], [0.26851722598075867, 0.039123181253671646, 0.43876779079437256, -0.6338195204734802, 0.18992021679878235, 0.45515382289886475, -0.3002075254917145, 0.24645349383354187, 0.17317195236682892, 0.029625358060002327, -0.3943018615245819, -0.43808117508888245, -0.06437050551176071], [0.007636744063347578, 0.004728552419692278, 0.4645814001560211, -0.23410314321517944, -0.733212947845459, 0.06143637374043465, 0.3288799822330475, 0.1851339489221573, 0.4094488322734833, 0.27558138966560364, 0.43439847230911255, -0.7364452481269836, 0.20072965323925018], [-0.5812959671020508, 0.004867781884968281, -0.6644465327262878, 0.7968606948852539, -0.343022882938385, 0.45233410596847534, -0.777387261390686, 0.2990450859069824, -0.19248206913471222, -0.46124985814094543, 0.18003621697425842, 0.23448137938976288, -0.47671276330947876], [-0.603032112121582, 0.21277570724487305, 0.3552666902542114, 0.3545190691947937, 0.38565173745155334, -0.3452833294868469, -0.6271366477012634, 0.37723875045776367, 0.4591260552406311, -0.5038400292396545, 0.06602874398231506, 0.13272970914840698, 0.1819915622472763], [0.03417498245835304, 0.3002459704875946, -0.1649383157491684, -0.16529738903045654, -0.5611752271652222, -0.4527397155761719, 0.1948540210723877, -0.2974780201911926, 0.1853129267692566, 0.10901164263486862, 0.6205212473869324, -0.0907769501209259, -0.3462088108062744]], "biases": [0.06872016191482544, -0.056225087493658066, -0.4470917582511902, -0.5194593071937561, 0.505001425743103, -0.15131695568561554, 0.21393543481826782, 0.4720954895019531, 0.11440549045801163, -0.27271050214767456, -0.037436723709106445, -0.1833396553993225, -0.11839954555034637]}, {"weights": [[-0.31428810954093933, -0.3815340995788574, 0.26227736473083496, -0.7499420642852783, 0.02922719717025757, 0.21660467982292175, 0.029720572754740715, -0.046053383499383926, -0.06831389665603638, -0.061656463891267776, 0.14877210557460785, -0.5409591197967529, -0.40277019143104553], [-0.1378631740808487, 0.263401061296463, -0.14221639931201935, 0.16659918427467346, 0.15061122179031372, 0.472415030002594, 0.04456956312060356, -0.4771426320075989, -0.20971238613128662, 0.08425973355770111, -0.24090102314949036, -0.2110617458820343, 0.3752524256706238], [-0.27004274725914, -0.2735682725906372, -0.23973345756530762, 0.11137943714857101, 0.873134970664978, -0.515052855014801, 0.5285542011260986, 0.8305745124816895, 0.19666354358196259, 0.5352181792259216, -0.400246262550354, 0.1776876002550125, -0.43308478593826294], [-0.5226916670799255, 0.41648176312446594, -0.3886185586452484, -0.11891615390777588, -0.6545913815498352, -0.34815165400505066, -0.08142945915460587, -0.2536841630935669, -0.17898346483707428, 0.261225163936615, 0.2707056999206543, -0.6139193773269653, -0.3970053195953369], [-0.07625819742679596, -0.30994537472724915, 0.16997256875038147, -0.12120424211025238, -0.07976137101650238, -0.3152121901512146, -0.4701036512851715, -0.65129554271698, -0.4525802731513977, 0.5035566091537476, -0.5714806318283081, 0.16614249348640442, 0.04942930117249489], [0.6505030989646912, 0.5454022288322449, -0.798737108707428, 0.41809841990470886, -0.437821626663208, 0.6489090919494629, 0.4976542592048645, 0.6918961405754089, 0.6374763250350952, 0.5443379878997803, 0.019643187522888184, 0.18244144320487976, -0.4157358705997467], [-0.3400373160839081, -0.4722931683063507, 0.08845474570989609, 0.40123653411865234, 0.2446954995393753, 0.3462214469909668, 0.4063265919685364, -0.022687632590532303, -0.20725350081920624, -0.04390934482216835, 0.6222302913665771, 0.09164600819349289, -0.022605985403060913], [0.3319704234600067, 0.03934581205248833, -0.35251012444496155, -0.46179553866386414, 0.16962046921253204, -0.19129560887813568, -0.2859162986278534, -0.4420436918735504, -0.3156677782535553, -0.4342873692512512, 0.41619569063186646, 0.009983854368329048, 0.0041023436933755875], [-0.09450370073318481, -0.485716849565506, -0.1838807761669159, -0.36502256989479065, -0.5874844193458557, -0.39289548993110657, -0.13438892364501953, 1.2212868928909302, 0.8833441138267517, 0.16146428883075714, -0.5975778698921204, -0.11600195616483688, -0.023775920271873474], [-0.23291118443012238, 0.19711773097515106, 0.04988623782992363, -0.07373344898223877, 0.3317652642726898, -0.09450651705265045, 0.24813781678676605, 0.019596286118030548, 0.1851714700460434, -0.4730958044528961, -0.1677887886762619, -0.0638136938214302, -0.5318118333816528], [-0.33067137002944946, 0.3408934473991394, -0.21728287637233734, 0.3172633647918701, 0.18356120586395264, 0.6836755275726318, 0.33262959122657776, 0.46159934997558594, 0.27888891100883484, -0.3204418420791626, -0.6145604848861694, -0.028355753049254417, 0.4865928292274475], [-0.2939816117286682, 0.06314405053853989, -0.3077351748943329, 0.5468783378601074, 0.8054774403572083, -0.04111418128013611, 0.907629132270813, 0.19649675488471985, -0.0063648344948887825, 0.76759272813797, -1.0086653232574463, 1.1421951055526733, 0.22458668053150177], [-0.5706517696380615, 0.13482284545898438, -0.4630507826805115, 0.10186439752578735, -0.11236656457185745, 0.0013346441555768251, 0.7485020160675049, 0.4541245698928833, -0.46273165941238403, 0.13232745230197906, -1.1344119310379028, -0.021367348730564117, 0.15481296181678772]], "biases": [0.4839887320995331, -0.37664225697517395, 0.2885298430919647, -0.4769529700279236, 0.13047288358211517, -0.32452553510665894, -0.4316576421260834, -1.0604721307754517, -0.05675067380070686, -0.30613183975219727, 0.14333929121494293, -0.20812945067882538, 0.598461925983429]}, {"weights": [[-0.2269248068332672, -0.2612910270690918, 0.27511459589004517], [0.5600985884666443, 0.6762586832046509, -0.5913809537887573], [-0.5425646305084229, -0.3121819794178009, -0.18906070291996002], [0.5086245536804199, 0.3101055920124054, -0.14371344447135925], [0.3774888515472412, -0.7529818415641785, 0.12154761701822281], [0.158554807305336, -0.572374165058136, -0.8295282125473022], [0.23318448662757874, 0.5811743140220642, -0.4749045968055725], [-0.13385531306266785, 1.3390357494354248, -0.2829393148422241], [-0.6086305379867554, 0.44867822527885437, 0.5243077278137207], [0.5268703103065491, 0.467332661151886, -0.191538006067276], [-0.12947338819503784, -0.6440102458000183, 0.40672576427459717], [0.2534472644329071, -0.5772562623023987, -0.698102593421936], [-0.7177808880805969, -0.8323832750320435, 0.5618045330047607]], "biases": [-0.22727377712726593, -0.7458499073982239, 0.3417917490005493]}, {"weights": [[-1.2894538640975952, -0.8447538018226624, -0.6510047316551208], [0.6068627834320068, 1.1964387893676758, 0.07467681169509888], [-0.009588955901563168, 0.08969751745462418, 1.2724682092666626], [-1.1793376207351685, -1.249814748764038, -0.5513593554496765], [0.5551760196685791, 1.6015639305114746, 0.11523482203483582], [-0.07025948911905289, 0.30788904428482056, 1.3564510345458984]], "biases": [-0.47109881043434143, -0.2898857593536377, -0.08563312143087387]}, {"weights": [[0.2309911549091339, -1.1853879690170288, -1.3956427574157715], [0.9928340315818787, -0.37994807958602905, -1.532039761543274], [0.7526195049285889, -1.948459267616272, -0.8464107513427734]], "biases": [0.48375460505485535, 0.84532630443573, 0.13412028551101685]}, {"weights": [[-0.6772994995117188, 1.8818761110305786], [4.572062015533447, -3.903402328491211], [1.7134995460510254, -1.9515817165374756]], "biases": [-0.37815338373184204, 0.3781530261039734]}]}