{"size": 13, "layers": [{"weights": [[0.36480212211608887, -1.3448203802108765, 0.9401741623878479, -1.4113035202026367, 0.7156571745872498, -0.8176621794700623, -0.5212650895118713, 0.15342701971530914, -0.10245215892791748, -0.7390727996826172, -0.10336710512638092, -0.2843722999095917, 0.8077877163887024, 0.608222484588623, 1.452228307723999, -0.40886247158050537, 0.6554943323135376, 0.03813580423593521, 0.8130422830581665, 0.343927800655365, 2.215125560760498, -0.011704670265316963, 0.0806243047118187, -1.4260586500167847, 1.5785828828811646, 0.6281647086143494], [0.8890843391418457, -0.658420979976654, 0.6360576748847961, 0.41448304057121277, -0.41931262612342834, 1.3881028890609741, -0.6067211627960205, 0.44032347202301025, -0.48415806889533997, -0.35602280497550964, 0.21219713985919952, -0.8317428827285767, -0.3264848589897156, 0.5151535868644714, -0.7047656178474426, 0.05727316439151764, 1.4834685325622559, -0.7565393447875977, -2.0878071784973145, -0.8719409704208374, -1.1172007322311401, 0.8068467378616333, -0.6713390946388245, -0.6405602693557739, -0.690626323223114, -0.30335307121276855], [-0.005195620935410261, -0.2820665240287781, 0.3447229266166687, 1.1559630632400513, -0.5162340402603149, -1.5240336656570435, -0.5291649699211121, -0.15346159040927887, -0.4402342140674591, 0.09934153407812119, -0.32239601016044617, 0.39753594994544983, -1.2987546920776367, -0.1348859667778015, 0.4015880525112152, 0.6528946161270142, -0.226557195186615, -0.5376828908920288, 1.0503593683242798, -2.2063655853271484, 0.8713597655296326, 2.0142667293548584, -1.3286367654800415, 0.6996890902519226, 0.46505290269851685, 0.9637197256088257], [-1.8654991388320923, -0.23568378388881683, 0.4462742507457733, 1.7648389339447021, -0.9100332260131836, 1.2438653707504272, -0.21578837931156158, -0.8128921389579773, 0.8258606791496277, 0.6115341186523438, -1.6593776941299438, -0.3457406163215637, -1.1705942153930664, -0.5042641162872314, 0.42125841975212097, 0.26195624470710754, 0.7001668214797974, 0.06510360538959503, -0.0922766700387001, -1.3320584297180176, -0.09005846083164215, 0.8245043158531189, -0.14045259356498718, 1.4316235780715942, -0.10752931237220764, -0.45784109830856323], [-1.7798398733139038, 0.425199955701828, 0.02994639053940773, 0.42082080245018005, -0.18627876043319702, -0.6094796061515808, 0.3378896713256836, 0.45515117049217224, 0.6125491857528687, 0.3695277273654938, 2.1911685466766357, 0.33852434158325195, 1.6352273225784302, -0.7154462337493896, 0.5254420638084412, -1.3976874351501465, 0.15317395329475403, -0.7625672221183777, -0.09075435250997543, 1.9461760520935059, 0.44992297887802124, -0.411421000957489, 2.905869960784912, 0.6542146801948547, -0.2191585898399353, -0.45818203687667847], [1.3262040615081787, 1.5074021816253662, 0.1694144457578659, -0.15586277842521667, 1.350026249885559, 0.9491798877716064, -0.40611782670021057, 0.5972809791564941, -1.2664965391159058, 0.07784997671842575, -0.8305618166923523, 0.04839160665869713, 0.5883373618125916, -1.190412998199463, -0.6914678812026978, -0.12863285839557648, 0.021999413147568703, -0.3487831652164459, 0.6904106736183167, 1.8754665851593018, -0.37789687514305115, -0.5669804215431213, 2.140888214111328, 0.19835536181926727, 1.5870755910873413, -0.8603470325469971], [2.333759307861328, 1.3875892162322998, -0.6059271097183228, -1.6817195415496826, 0.48269084095954895, -1.2491704225540161, 0.8584216833114624, 0.24794049561023712, -0.09424503892660141, -0.4788997769355774, 0.3583376705646515, 0.4944738745689392, 3.78790545463562, -1.466137170791626, 0.7518242001533508, 1.4647583961486816, -0.7811408638954163, -0.8867464661598206, -0.8862085342407227, 1.896554708480835, -1.0342761278152466, -2.0185110569000244, -0.43624231219291687, -0.535854697227478, -1.4879652261734009, 0.43503761291503906], [0.9938859939575195, 0.8453018069267273, -1.5514004230499268, -0.43099796772003174, 0.2585517168045044, 0.1892918199300766, 0.9623737335205078, -1.716130018234253, 0.3094727098941803, -1.9627127647399902, -1.1764583587646484, -0.09151046723127365, 4.805882930755615, 0.1418343484401703, -1.3588426113128662, 2.558595657348633, 0.5600839257240295, 1.763490915298462, 1.227730631828308, -1.081117868423462, -0.000654095143545419, -2.7393558025360107, -1.4703370332717896, -0.01407682616263628, 0.5910044312477112, -2.639455795288086], [-0.396902859210968, 0.492413729429245, -1.7328935861587524, -0.3736084997653961, -0.7506213188171387, 0.3393484652042389, 1.3940534591674805, -2.3958652019500732, 1.0533132553100586, -0.3996419608592987, -1.2609971761703491, 0.3520503640174866, -0.05845349654555321, 1.9279569387435913, -0.6775547862052917, 0.1176462471485138, -1.1129494905471802, -0.01325957290828228, -2.0670228004455566, -1.9177522659301758, -0.9203556180000305, -0.8628535866737366, -0.7846713066101074, -0.0906796008348465, -1.0704768896102905, -7.397684097290039], [-1.485884666442871, 0.35731181502342224, -2.721193313598633, -0.22869008779525757, 2.3303258419036865, -1.5982978343963623, 2.0769855976104736, 0.6264331340789795, 2.0896894931793213, -0.46192464232444763, -1.1505582332611084, -1.3722230195999146, -0.9065341949462891, 1.5101745128631592, -0.05436555668711662, -2.3704614639282227, -1.2255128622055054, 1.9343525171279907, -0.28406763076782227, -1.6983850002288818, 0.9821410179138184, 0.829606294631958, -0.1543496698141098, -0.5914871096611023, -0.823596179485321, -9.892266273498535], [-1.3901525735855103, -0.7592682242393494, -0.5899277925491333, -0.5808225274085999, 11.241844177246094, 1.3178051710128784, 2.1274445056915283, 2.5314791202545166, 0.0490206778049469, 0.06478088349103928, -1.415974497795105, -2.2460927963256836, -2.360915184020996, 0.5537587404251099, -2.912039279937744, -1.1633868217468262, -3.3049721717834473, -1.281457781791687, 0.04949918016791344, -1.1604101657867432, -0.5635608434677124, 1.3535135984420776, -0.48230087757110596, -0.06224105879664421, 0.2530934810638428, 0.2533576488494873], [-0.5892870426177979, -0.7946722507476807, 0.4474524259567261, 1.3018114566802979, 3.889439105987549, -1.270306944847107, -2.102264642715454, 1.3376237154006958, -2.1672141551971436, -0.27616623044013977, 1.5064407587051392, -0.8839000463485718, -4.236283302307129, -0.47862496972084045, 3.5786349773406982, -0.44187039136886597, -3.481682300567627, 2.20965576171875, 0.7933248281478882, -7.544448375701904, 1.071327567100525, 0.1940477192401886, -0.36965352296829224, 0.12746372818946838, -1.9136477708816528, -5.114200592041016], [1.0671393871307373, -0.6768487691879272, 2.4974329471588135, -0.5497483015060425, 1.2605901956558228, 1.8470691442489624, -3.2100203037261963, -0.2711752951145172, -1.8233531713485718, -0.08315449953079224, 0.04711020737886429, -1.035960078239441, 0.1383509486913681, 0.0747823491692543, -2.762775421142578, -0.29206961393356323, -1.0077842473983765, 1.8106215000152588, 1.3311244249343872, -2.101963996887207, -2.8203516006469727, 0.034166786819696426, 0.2814842164516449, 1.021655797958374, 0.728786826133728, -2.391482353210449]], "biases": [1.1938618421554565, -1.063429355621338, -0.14779916405677795, 0.5052196383476257, -1.9723402261734009, -0.34529757499694824, 0.4110924303531647, -0.8043994307518005, 2.433292865753174, 3.4111173152923584, 1.9150055646896362, 5.7654805183410645, -1.131234884262085, -0.6935358047485352, -1.7797702550888062, 0.4778423607349396, -2.479142189025879, 2.2497148513793945, 0.45339685678482056, 1.6794242858886719, -2.1144001483917236, -0.26463812589645386, 0.8366120457649231, -0.16157831251621246, -2.7014389038085938, 1.8308991193771362]}, {"weights": [[-0.1940487176179886, -1.0246633291244507, 0.96927410364151, -0.5358752608299255, -2.0901167392730713, -0.04905484989285469, -3.020021438598633, -1.9849629402160645], [0.8098472952842712, -0.7991693019866943, -1.85269296169281, 1.9831416606903076, -24.310213088989258, 0.5637089014053345, 4.063615322113037, -18.19710922241211], [0.39882782101631165, -0.62654048204422, -0.9388534426689148, 0.6083481311798096, 0.7350995540618896, 0.5434947609901428, 0.6104495525360107, 1.00631582736969], [-0.01896866038441658, -0.8727108240127563, 0.7859910130500793, -0.8427449464797974, -1.0052639245986938, 0.0826263427734375, 0.3908335864543915, 0.126522496342659], [0.8007093071937561, -1.339195728302002, -0.03414757177233696, 0.529007077217102, 1.745868444442749, -1.4297692775726318, -0.4028679132461548, -2.0098206996917725], [-1.2545115947723389, -1.0200871229171753, 1.064988613128662, 0.18847495317459106, -6.555661678314209, -6.341004371643066, -0.7668156623840332, -5.2737717628479], [0.3945685923099518, -0.7023284435272217, 1.090501308441162, -0.4575396776199341, -14.981669425964355, -1.4145246744155884, 0.20119526982307434, -21.59969711303711], [0.8022096753120422, -1.1302260160446167, -1.9127951860427856, 0.6287909150123596, 1.4433327913284302, -0.8043742179870605, -0.0027442295104265213, 2.2697739601135254], [-0.5993887186050415, -1.845390796661377, 0.7747078537940979, -0.22415094077587128, -3.952552080154419, -1.660603404045105, -2.1662535667419434, -3.580496311187744], [0.41332530975341797, -0.8425527811050415, 3.0090973377227783, -2.9408395290374756, -0.8170061111450195, -2.06221866607666, 0.6895378828048706, -2.774850368499756], [-1.0215941667556763, -1.0084257125854492, 0.9842346906661987, -0.6699367165565491, -2.1683475971221924, -0.2718457281589508, -0.473982036113739, -5.232360363006592], [-0.917280375957489, -1.0471796989440918, 1.0759592056274414, 0.005403767339885235, 0.6599875092506409, -1.4032306671142578, -0.983473002910614, -4.952569007873535], [0.2939029633998871, -0.7512369155883789, -1.1847941875457764, 1.324317216873169, 0.8310040831565857, 0.5633553862571716, -0.3136216402053833, 0.020038463175296783], [-2.3152658939361572, -1.4839258193969727, -2.1183764934539795, 1.8793202638626099, 1.1193106174468994, 1.6974881887435913, -0.5271983742713928, 2.3818323612213135], [-0.22448870539665222, -1.2603205442428589, -0.3718116581439972, 0.5862366557121277, 0.6721401214599609, 0.7571405172348022, 1.3122409582138062, 0.6419095396995544], [-0.41238394379615784, -1.3734039068222046, 0.8655507564544678, -0.4228362739086151, -2.167069673538208, -0.18330009281635284, -1.2699896097183228, -0.8953884243965149], [-0.5420982241630554, -1.3595829010009766, -0.45151302218437195, 0.5092631578445435, 0.6582059264183044, 0.38297227025032043, 0.8950904011726379, 0.5600639581680298], [-0.09478803724050522, -1.2429848909378052, 0.7907236814498901, -0.28380388021469116, 5.104741096496582, 2.7032971382141113, -0.8175740838050842, 2.303492546081543], [1.6706348657608032, -1.1066306829452515, 1.3892018795013428, -0.0065053915604949, -6.510541915893555, -3.118720293045044, -0.9481515884399414, -2.5196404457092285], [-1.3598029613494873, -0.3814544975757599, -5.553221702575684, -0.9286692142486572, 0.10437104105949402, -2.845508337020874, -0.10814587771892548, 14.408620834350586], [0.551633358001709, -0.7325497269630432, -0.7558122277259827, 0.8670666813850403, 0.7050173878669739, 0.5680857300758362, 1.1355253458023071, 0.8829944133758545], [-0.4306804835796356, -1.088490605354309, 1.7502710819244385, -1.181448221206665, 0.5440332293510437, 0.607333779335022, 0.05063530057668686, 0.1228456050157547], [0.4113292098045349, -0.9346218705177307, 1.8338735103607178, -1.3586900234222412, -4.2677083015441895, 0.16383641958236694, -1.0845118761062622, 0.9430288076400757], [0.375584214925766, -0.771963894367218, -0.5233434438705444, 1.3527369499206543, 6.450713634490967, -1.534099817276001, 9.535307884216309, -1.5473873615264893], [0.6066108345985413, -1.4030299186706543, -0.6006383895874023, 0.6994230151176453, 1.0165660381317139, 0.3376399874687195, 1.2861967086791992, 0.6950187683105469], [-1.9675889015197754, -0.9939380288124084, 0.07654344290494919, -0.914300262928009, 1.0203421115875244, -0.9055643677711487, -0.4434976279735565, -0.7863240838050842]], "biases": [0.5954108834266663, -1.2064989805221558, -0.5573928952217102, 0.6718994379043579, 0.4013473391532898, 0.34477052092552185, 0.4228091239929199, 0.41014277935028076]}, {"weights": [[-0.12858395278453827, -0.2835596799850464, -0.6747662425041199, -0.4321378171443939, 0.17133180797100067, 0.2667858898639679, 0.29388323426246643, -0.6878269910812378], [0.37519416213035583, 0.19183172285556793, -0.15930236876010895, -0.019719164818525314, 0.017147252336144447, -0.41449829936027527, -0.4529804289340973, 0.427534282207489], [-2.0549538135528564, 2.1255295276641846, 2.103065252304077, 2.8560361862182617, 2.29118275642395, -2.465607166290283, -2.1547555923461914, 1.8048362731933594], [2.5855071544647217, -2.683246374130249, -2.529317617416382, -2.676079273223877, -2.951246976852417, 2.386359691619873, 3.0416224002838135, -2.6942451000213623], [-2.1254260540008545, 0.8995876312255859, 1.7422584295272827, 1.1355115175247192, 1.2219953536987305, -0.9359747171401978, -1.3901761770248413, 1.6819415092468262], [0.34282928705215454, -0.5640888810157776, -0.6148642301559448, -0.6759659051895142, -0.015500455163419247, -0.09982971101999283, 0.4308152198791504, -0.603064239025116], [0.9177011251449585, -1.2055115699768066, -1.1127514839172363, -0.5939923524856567, -1.1618777513504028, 1.0183632373809814, 1.2269818782806396, -1.0114384889602661], [-0.8107198476791382, 0.21482667326927185, 0.8194514513015747, 0.04292141646146774, 0.6187598705291748, -0.3607540428638458, -0.584517776966095, 0.23075737059116364], [0.8629936575889587, -0.0359213650226593, -0.3360045254230499, -0.2293858826160431, -0.19467991590499878, 0.714764416217804, 0.581332266330719, -0.6466740369796753], [-0.3956123888492584, -0.38913387060165405, -0.48835489153862, -0.5514293313026428, -0.33358874917030334, -0.29329952597618103, -0.26291394233703613, 0.43419158458709717], [-1.9061527252197266, 2.2151577472686768, 1.845476746559143, 2.741812229156494, 2.1494293212890625, -2.227278470993042, -2.2614481449127197, 1.9847420454025269], [2.717400550842285, -2.525691032409668, -2.978325605392456, -2.316612482070923, -3.078214168548584, 2.866655111312866, 2.9222259521484375, -2.5560696125030518], [-1.5325809717178345, 0.8747299909591675, 1.5151361227035522, 0.8361128568649292, 1.0359317064285278, -0.849057674407959, -1.4186040163040161, 1.7912758588790894], [-0.039882078766822815, -0.6897443532943726, -0.11331353336572647, -0.3967861235141754, -0.753165066242218, 0.29411423206329346, 0.7056172490119934, 0.028271112591028214], [1.2115564346313477, -1.1149520874023438, -1.6467705965042114, -1.241166591644287, -0.9996815323829651, 1.1675102710723877, 0.781840980052948, -0.7565380930900574], [-0.8541743159294128, 0.18211926519870758, 0.556623101234436, 0.05056652054190636, 0.2829294204711914, -0.2753848731517792, -0.5485966205596924, 0.21117407083511353]], "biases": [0.0795421376824379, 0.08113685250282288, -0.1488993912935257, -0.22159332036972046, 0.17362439632415771, -0.19880294799804688, -0.18096956610679626, -0.1657368242740631]}, {"weights": [[2.0257859230041504, 1.6295521259307861, 2.0017120838165283, -2.1865179538726807, 2.5052640438079834, 0.8214274644851685, 1.8640928268432617, -1.8269422054290771], [-1.791878581047058, -2.2198574542999268, -1.4482405185699463, 1.2069215774536133, -2.115689992904663, -2.9425370693206787, -2.057131767272949, 1.7311376333236694], [-2.4872920513153076, -2.2969706058502197, -1.9976305961608887, 2.246396780014038, -2.1206204891204834, -2.9929139614105225, -2.310497522354126, 1.9187006950378418], [-2.0269744396209717, -2.2201335430145264, -2.236837148666382, 2.330702304840088, -2.518115758895874, -2.6744797229766846, -1.6756296157836914, 2.0149433612823486], [-2.4016079902648926, -2.561025857925415, -2.662503480911255, 2.4194092750549316, -1.7256149053573608, -3.143899440765381, -3.087292194366455, 2.674802541732788], [2.9364824295043945, 1.9298481941223145, 2.204185724258423, -2.92073917388916, 2.6361193656921387, 0.2778233289718628, 1.583209753036499, -2.7258875370025635], [2.4972360134124756, 1.372545599937439, 2.826205253601074, -2.624507188796997, 1.973489761352539, 0.8590383529663086, 1.888879656791687, -2.7771506309509277], [-1.7895488739013672, -2.637294054031372, -1.822187900543213, 2.0997543334960938, -1.8731117248535156, -2.427700996398926, -1.7928179502487183, 1.529114842414856]], "biases": [0.4139617681503296, -0.4464567303657532, 0.09539686143398285, -0.3593847155570984, 0.27985328435897827, -1.0858545303344727, -0.473955899477005, -0.13646690547466278]}, {"weights": [[2.6023635864257812, -2.570753574371338], [1.254677176475525, -2.1213464736938477], [2.709368944168091, -2.3084182739257812], [-1.9811725616455078, 2.6721351146698], [2.438204288482666, -2.416771173477173], [1.5621761083602905, -1.1965115070343018], [1.3111588954925537, -2.11873197555542], [-2.3455231189727783, 2.4305238723754883]], "biases": [-0.6274414658546448, 0.6274688243865967]}]}